<?xml version="1.0"?>
<!-- DTD for the XMLBIF 0.3 format -->
<!DOCTYPE BIF [
	<!ELEMENT BIF ( NETWORK )*>
	      <!ATTLIST BIF VERSION CDATA #REQUIRED>
	<!ELEMENT NETWORK ( NAME, ( PROPERTY | VARIABLE | DEFINITION )* )>
	<!ELEMENT NAME (#PCDATA)>
	<!ELEMENT VARIABLE ( NAME, ( OUTCOME |  PROPERTY )* ) >
	      <!ATTLIST VARIABLE TYPE (nature|decision|utility) "nature">
	<!ELEMENT OUTCOME (#PCDATA)>
	<!ELEMENT DEFINITION ( FOR | GIVEN | TABLE | PROPERTY )* >
	<!ELEMENT FOR (#PCDATA)>
	<!ELEMENT GIVEN (#PCDATA)>
	<!ELEMENT TABLE (#PCDATA)>
	<!ELEMENT PROPERTY (#PCDATA)>
]>


<BIF VERSION="0.3">
<NETWORK>
<NAME>New Network</NAME>
<VARIABLE TYPE="nature">
<NAME>Lugar</NAME>
<OUTCOME>Bosque</OUTCOME>
<OUTCOME>Montana</OUTCOME>
<OUTCOME>Costa</OUTCOME>
<PROPERTY>position = (264,131)</PROPERTY>
</VARIABLE>
<VARIABLE TYPE="nature">
<NAME>Ciudad</NAME>
<OUTCOME>T</OUTCOME>
<OUTCOME>F</OUTCOME>
<PROPERTY>position = (417,252)</PROPERTY>
</VARIABLE>
<VARIABLE TYPE="nature">
<NAME>Horda</NAME>
<OUTCOME>T</OUTCOME>
<OUTCOME>F</OUTCOME>
<PROPERTY>position = (188,248)</PROPERTY>
</VARIABLE>
<VARIABLE TYPE="nature">
<NAME>Medicina</NAME>
<OUTCOME>T</OUTCOME>
<OUTCOME>F</OUTCOME>
<PROPERTY>position = (599,254)</PROPERTY>
</VARIABLE>
<VARIABLE TYPE="nature">
<NAME>Agua</NAME>
<OUTCOME>T</OUTCOME>
<OUTCOME>F</OUTCOME>
<PROPERTY>position = (471,313)</PROPERTY>
</VARIABLE>
<VARIABLE TYPE="nature">
<NAME>Comida</NAME>
<OUTCOME>T</OUTCOME>
<OUTCOME>F</OUTCOME>
<PROPERTY>position = (654,329)</PROPERTY>
</VARIABLE>
<VARIABLE TYPE="nature">
<NAME>Refugio</NAME>
<OUTCOME>T</OUTCOME>
<OUTCOME>F</OUTCOME>
<PROPERTY>position = (269,313)</PROPERTY>
</VARIABLE>
<VARIABLE TYPE="nature">
<NAME>Vehiculo</NAME>
<OUTCOME>T</OUTCOME>
<OUTCOME>F</OUTCOME>
<PROPERTY>position = (360,353)</PROPERTY>
</VARIABLE>
<VARIABLE TYPE="nature">
<NAME>Armas</NAME>
<OUTCOME>T</OUTCOME>
<OUTCOME>F</OUTCOME>
<PROPERTY>position = (600,349)</PROPERTY>
</VARIABLE>
<VARIABLE TYPE="nature">
<NAME>Grupo</NAME>
<OUTCOME>T</OUTCOME>
<OUTCOME>F</OUTCOME>
<PROPERTY>position = (429,361)</PROPERTY>
</VARIABLE>
<VARIABLE TYPE="nature">
<NAME>Soldados umbrella</NAME>
<OUTCOME>T</OUTCOME>
<OUTCOME>F</OUTCOME>
<PROPERTY>position = (646,405)</PROPERTY>
</VARIABLE>
<VARIABLE TYPE="nature">
<NAME>Cooperativo</NAME>
<OUTCOME>T</OUTCOME>
<OUTCOME>F</OUTCOME>
<PROPERTY>position = (436,443)</PROPERTY>
</VARIABLE>
<DEFINITION>
<FOR>Lugar</FOR>
<TABLE>
0.3 0.2 0.5 
</TABLE>
</DEFINITION>
<DEFINITION>
<FOR>Ciudad</FOR>
<GIVEN>Lugar</GIVEN>
<TABLE>
0.6000000000000001 0.39999999999999997 
0.2 0.8 
0.8 0.19999999999999996 
</TABLE>
</DEFINITION>
<DEFINITION>
<FOR>Horda</FOR>
<GIVEN>Lugar</GIVEN>
<GIVEN>Ciudad</GIVEN>
<TABLE>
0.6000000000000001 0.39999999999999997 
0.3 0.7 
0.3 0.7 
0.2 0.8 
0.4 0.6 
0.3 0.7 
</TABLE>
</DEFINITION>
<DEFINITION>
<FOR>Medicina</FOR>
<GIVEN>Ciudad</GIVEN>
<TABLE>
0.8 0.19999999999999996 
0.1 0.9 
</TABLE>
</DEFINITION>
<DEFINITION>
<FOR>Agua</FOR>
<GIVEN>Ciudad</GIVEN>
<TABLE>
0.4 0.6 
0.2 0.8 
</TABLE>
</DEFINITION>
<DEFINITION>
<FOR>Comida</FOR>
<GIVEN>Ciudad</GIVEN>
<TABLE>
0.7 0.30000000000000004 
0.3 0.7 
</TABLE>
</DEFINITION>
<DEFINITION>
<FOR>Refugio</FOR>
<GIVEN>Ciudad</GIVEN>
<TABLE>
0.8 0.19999999999999996 
0.4 0.6 
</TABLE>
</DEFINITION>
<DEFINITION>
<FOR>Vehiculo</FOR>
<GIVEN>Ciudad</GIVEN>
<TABLE>
0.6000000000000001 0.39999999999999997 
0.1 0.9 
</TABLE>
</DEFINITION>
<DEFINITION>
<FOR>Armas</FOR>
<GIVEN>Ciudad</GIVEN>
<TABLE>
0.3 0.7 
0.1 0.9 
</TABLE>
</DEFINITION>
<DEFINITION>
<FOR>Grupo</FOR>
<GIVEN>Ciudad</GIVEN>
<TABLE>
0.6000000000000001 0.39999999999999997 
0.2 0.8 
</TABLE>
</DEFINITION>
<DEFINITION>
<FOR>Soldados umbrella</FOR>
<GIVEN>Ciudad</GIVEN>
<TABLE>
0.1 0.9 
0.2 0.8 
</TABLE>
</DEFINITION>
<DEFINITION>
<FOR>Cooperativo</FOR>
<GIVEN>Grupo</GIVEN>
<GIVEN>Refugio</GIVEN>
<TABLE>
0.8 0.19999999999999996 
0.4 0.6 
0.0 1.0 
0.0 1.0 
</TABLE>
</DEFINITION>
</NETWORK>
</BIF>
